<?xml version="1.0"?>
<opencv_storage>
<xml type_id="opencv-haar-classifier">
  <size>
    32 32</size>
  <stages>
    <_>
      <!-- stage 0 -->
      <trees>
        <_>
          <!-- tree 0 -->
          <_>
            <!-- root node -->
            <feature>
              <rects>
                <_>
                  0 0 12 3 -1.</_>
                <_>
                  4 0 4 3 3.</_></rects>
              <tilted>0</tilted></feature>
            <threshold>-3.5698848660103977e-004</threshold>
            <left_val>1.</left_val>
            <right_val>-1.</right_val></_></_></trees>
      <stage_threshold>1.</stage_threshold>
      <parent>-1</parent>
      <next>-1</next></_>
    <_>
      <!-- stage 1 -->
      <trees>
        <_>
          <!-- tree 0 -->
          <_>
            <!-- root node -->
            <feature>
              <rects>
                <_>
                  0 0 12 1 -1.</_>
                <_>
                  6 0 6 1 2.</_></rects>
              <tilted>0</tilted></feature>
            <threshold>4.2503061704337597e-003</threshold>
            <left_val>-1.</left_val>
            <right_val>1.</right_val></_></_></trees>
      <stage_threshold>1.</stage_threshold>
      <parent>0</parent>
      <next>-1</next></_>
    <_>
      <!-- stage 2 -->
      <trees>
        <_>
          <!-- tree 0 -->
          <_>
            <!-- root node -->
            <feature>
              <rects>
                <_>
                  0 0 12 28 -1.</_>
                <_>
                  0 0 6 14 2.</_>
                <_>
                  6 14 6 14 2.</_></rects>
              <tilted>0</tilted></feature>
            <threshold>-2.1362990140914917e-002</threshold>
            <left_val>-1.</left_val>
            <right_val>1.</right_val></_></_></trees>
      <stage_threshold>1.</stage_threshold>
      <parent>1</parent>
      <next>-1</next></_>
    <_>
      <!-- stage 3 -->
      <trees>
        <_>
          <!-- tree 0 -->
          <_>
            <!-- root node -->
            <feature>
              <rects>
                <_>
                  0 0 18 7 -1.</_>
                <_>
                  6 0 6 7 3.</_></rects>
              <tilted>0</tilted></feature>
            <threshold>-3.2734520733356476e-002</threshold>
            <left_val>1.</left_val>
            <right_val>-1.</right_val></_></_></trees>
      <stage_threshold>1.</stage_threshold>
      <parent>2</parent>
      <next>-1</next></_>
    <_>
      <!-- stage 4 -->
      <trees>
        <_>
          <!-- tree 0 -->
          <_>
            <!-- root node -->
            <feature>
              <rects>
                <_>
                  0 0 1 30 -1.</_>
                <_>
                  0 10 1 10 3.</_></rects>
              <tilted>0</tilted></feature>
            <threshold>-3.4528688993304968e-003</threshold>
            <left_val>-1.</left_val>
            <right_val>1.</right_val></_></_></trees>
      <stage_threshold>1.</stage_threshold>
      <parent>3</parent>
      <next>-1</next></_></stages></xml>
</opencv_storage>
